<?xml version="1.0"?>
<opencv_storage>
<cascade>
  <stageType>BOOST</stageType>
  <featureType>HAAR</featureType>
  <height>24</height>
  <width>24</width>
  <stageParams>
    <boostType>GAB</boostType>
    <minHitRate>9.9500000476837158e-01</minHitRate>
    <maxFalseAlarm>5.0000000000000000e-01</maxFalseAlarm>
    <weightTrimRate>9.4999998807907104e-01</weightTrimRate>
    <maxDepth>1</maxDepth>
    <maxWeakCount>100</maxWeakCount></stageParams>
  <featureParams>
    <maxCatCount>0</maxCatCount>
    <featSize>1</featSize>
    <mode>BASIC</mode></featureParams>
  <stageNum>17</stageNum>
  <stages>
    <!-- stage 0 -->
    <_>
      <maxWeakCount>2</maxWeakCount>
      <stageThreshold>1.0468223690986633e-01</stageThreshold>
      <weakClassifiers>
        <_>
          <internalNodes>
            0 -1 81 2.0103612914681435e-02</internalNodes>
          <leafValues>
            -7.6734691858291626e-01 9.0896737575531006e-01</leafValues></_>
        <_>
          <internalNodes>
            0 -1 13 -4.2128339409828186e-02</internalNodes>
          <leafValues>
            8.7202918529510498e-01 -8.0288445949554443e-01</leafValues></_></weakClassifiers></_>
    <!-- stage 1 -->
    <_>
      <maxWeakCount>2</maxWeakCount>
      <stageThreshold>1.8656177818775177e-01</stageThreshold>
      <weakClassifiers>
        <_>
          <internalNodes>
            0 -1 5 -2.0241791009902954e-01</internalNodes>
          <leafValues>
            8.8704091310501099e-01 -6.1271673440933228e-01</leafValues></_>
        <_>
          <internalNodes>
            0 -1 47 -4.2336504906415939e-02</internalNodes>
          <leafValues>
            7.9927855730056763e-01 -6.8351882696151733e-01</leafValues></_></weakClassifiers></_>
    <!-- stage 2 -->
    <_>
      <maxWeakCount>4</maxWeakCount>
      <stageThreshold>-2.0044480264186859e-01</stageThreshold>
      <weakClassifiers>
        <_>
          <internalNodes>
            0 -1 49 -3.9400588721036911e-02</internalNodes>
          <leafValues>
            8.4405857324600220e-01 -5.6231003999710083e-01</leafValues></_>
        <_>
          <internalNodes>
            0 -1 11 -2.7934409677982330e-02</internalNodes>
          <leafValues>
            7.0890319347381592e-01 -6.0786527395248413e-01</leafValues></_>
        <_>
          <internalNodes>
            0 -1 74 2.9054244980216026e-02</internalNodes>
          <leafValues>
            -7.5918537378311157e-01 6.3952285051345825e-01</leafValues></_>
        <_>
          <internalNodes>
            0 -1 38 -1.3504326343536377e-02</internalNodes>
          <leafValues>
            4.1214740276336670e-01 -8.4735977649688721e-01</leafValues></_></weakClassifiers></_>
    <!-- stage 3 -->
    <_>
      <maxWeakCount>5</maxWeakCount>
      <stageThreshold>-1.0315473079681396e+00</stageThreshold>
      <weakClassifiers>
        <_>
          <internalNodes>
            0 -1 6 -2.1459734125528485e-04</internalNodes>
          <leafValues>
            -8.5992217063903809e-01 6.9384163618087769e-01</leafValues></_>
        <_>
          <internalNodes>
            0 -1 30 -1.0215021669864655e-02</internalNodes>
          <leafValues>
            6.0036396980285645e-01 -7.2421741485595703e-01</leafValues></_>
        <_>
          <internalNodes>
            0 -1 85 1.8440976738929749e-02</internalNodes>
          <leafValues>
            -6.9795268774032593e-01 4.8413068056106567e-01</leafValues></_>
        <_>
          <internalNodes>
            0 -1 26 8.8778964709490538e-05</internalNodes>
          <leafValues>
            -8.8992720842361450e-01 3.0234602093696594e-01</leafValues></_>
        <_>
          <internalNodes>
            0 -1 22 -2.5489445775747299e-02</internalNodes>
          <leafValues>
            3.0967307090759277e-01 -7.3787295818328857e-01</leafValues></_></weakClassifiers></_>
    <!-- stage 4 -->
    <_>
      <maxWeakCount>6</maxWeakCount>
      <stageThreshold>-9.6924000978469849e-01</stageThreshold>
      <weakClassifiers>
        <_>
          <internalNodes>
            0 -1 66 -1.3681289739906788e-02</internalNodes>
          <leafValues>
            7.8803986310958862e-01 -4.9015316367149353e-01</leafValues></_>
        <_>
          <internalNodes>
            0 -1 73 3.1557440757751465e-02</internalNodes>
          <leafValues>
            -7.8487956523895264e-01 5.4627877473831177e-01</leafValues></_>
        <_>
          <internalNodes>
            0 -1 53 -9.0129335876554251e-04</internalNodes>
          <leafValues>
            3.7709832191467285e-01 -7.7222949266433716e-01</leafValues></_>
        <_>
          <internalNodes>
            0 -1 16 -1.5386965125799179e-02</internalNodes>
          <leafValues>
            5.2352744340896606e-01 -5.4057651758193970e-01</leafValues></_>
        <_>
          <internalNodes>
            0 -1 64 1.2978205457329750e-02</internalNodes>
          <leafValues>
            -2.9553225636482239e-01 8.0039668083190918e-01</leafValues></_>
        <_>
          <internalNodes>
            0 -1 50 -6.9869041442871094e-02</internalNodes>
          <leafValues>
            5.9115451574325562e-01 -4.2816603183746338e-01</leafValues></_></weakClassifiers></_>
    <!-- stage 5 -->
    <_>
      <maxWeakCount>6</maxWeakCount>
      <stageThreshold>-1.1446002721786499e+00</stageThreshold>
      <weakClassifiers>
        <_>
          <internalNodes>
            0 -1 33 7.9191140830516815e-03</internalNodes>
          <leafValues>
            -7.8398507833480835e-01 6.9235312938690186e-01</leafValues></_>
        <_>
          <internalNodes>
            0 -1 14 -4.9034561961889267e-03</internalNodes>
          <leafValues>
            4.9800157546997070e-01 -7.3487854003906250e-01</leafValues></_>
        <_>
          <internalNodes>
            0 -1 63 1.0524621233344078e-02</internalNodes>
          <leafValues>
            -3.7519189715385437e-01 7.7033573389053345e-01</leafValues></_>
        <_>
          <internalNodes>
            0 -1 23 3.0146798962960020e-05</internalNodes>
          <leafValues>
            -6.2287586927413940e-01 4.3749305605888367e-01</leafValues></_>
        <_>
          <internalNodes>
            0 -1 87 1.6468426212668419e-02</internalNodes>
          <leafValues>
            -6.8644022941589355e-01 3.8782453536987305e-01</leafValues></_>
        <_>
          <internalNodes>
            0 -1 59 -5.6914284825325012e-02</internalNodes>
          <leafValues>
            4.5211142301559448e-01 -4.9183160066604614e-01</leafValues></_></weakClassifiers></_>
    <!-- stage 6 -->
    <_>
      <maxWeakCount>5</maxWeakCount>
      <stageThreshold>-3.6617112159729004e-01</stageThreshold>
      <weakClassifiers>
        <_>
          <internalNodes>
            0 -1 1 -5.6850939290598035e-04</internalNodes>
          <leafValues>
            -8.4795320034027100e-01 6.9158601760864258e-01</leafValues></_>
        <_>
          <internalNodes>
            0 -1 57 1.5992805361747742e-02</internalNodes>
          <leafValues>
            -2.9175475239753723e-01 8.5654693841934204e-01</leafValues></_>
        <_>
          <internalNodes>
            0 -1 19 -3.7234775722026825e-02</internalNodes>
          <leafValues>
            6.6898018121719360e-01 -4.2317622900009155e-01</leafValues></_>
        <_>
          <internalNodes>
            0 -1 80 -3.3395428210496902e-02</internalNodes>
          <leafValues>
            8.1157910823822021e-01 -2.9788312315940857e-01</leafValues></_>
        <_>
          <internalNodes>
            0 -1 44 -1.8082423775922507e-04</internalNodes>
          <leafValues>
            -7.2232013940811157e-01 3.8513395190238953e-01</leafValues></_></weakClassifiers></_>
    <!-- stage 7 -->
    <_>
      <maxWeakCount>5</maxWeakCount>
      <stageThreshold>-8.6610567569732666e-01</stageThreshold>
      <weakClassifiers>
        <_>
          <internalNodes>
            0 -1 12 1.2093764235032722e-04</internalNodes>
          <leafValues>
            6.9605225324630737e-01 -7.5855857133865356e-01</leafValues></_>
        <_>
          <internalNodes>
            0 -1 3 -2.4868695065379143e-02</internalNodes>
          <leafValues>
            4.3306180834770203e-01 -6.8722391128540039e-01</leafValues></_>
        <_>
          <internalNodes>
            0 -1 82 3.8618181133642793e-04</internalNodes>
          <leafValues>
            -7.8795176744461060e-01 3.1456279754638672e-01</leafValues></_>
        <_>
          <internalNodes>
            0 -1 62 -1.1178493499755859e-02</internalNodes>
          <leafValues>
            7.2870498895645142e-01 -3.8474610447883606e-01</leafValues></_>
        <_>
          <internalNodes>
            0 -1 25 -1.1367815022822469e-04</internalNodes>
          <leafValues>
            -9.5104479789733887e-01 2.9776388406753540e-01</leafValues></_></weakClassifiers></_>
    <!-- stage 8 -->
    <_>
      <maxWeakCount>5</maxWeakCount>
      <stageThreshold>-4.3803423643112183e-01</stageThreshold>
      <weakClassifiers>
        <_>
          <internalNodes>
            0 -1 20 -1.3706780009670183e-05</internalNodes>
          <leafValues>
            6.6578871011734009e-01 -6.9230771064758301e-01</leafValues></_>
        <_>
          <internalNodes>
            0 -1 7 -2.1072495728731155e-02</internalNodes>
          <leafValues>
            -9.4462394714355469e-01 3.3287480473518372e-01</leafValues></_>
        <_>
          <internalNodes>
            0 -1 48 -3.4129194915294647e-02</internalNodes>
          <leafValues>
            4.7415027022361755e-01 -5.5307739973068237e-01</leafValues></_>
        <_>
          <internalNodes>
            0 -1 89 3.3973461540881544e-05</internalNodes>
          <leafValues>
            -7.8079378604888916e-01 2.7541920542716980e-01</leafValues></_>
        <_>
          <internalNodes>
            0 -1 77 1.1749404948204756e-03</internalNodes>
          <leafValues>
            1.9905689358711243e-01 -9.1121888160705566e-01</leafValues></_></weakClassifiers></_>
    <!-- stage 9 -->
    <_>
      <maxWeakCount>7</maxWeakCount>
      <stageThreshold>-8.1808847188949585e-01</stageThreshold>
      <weakClassifiers>
        <_>
          <internalNodes>
            0 -1 36 -3.3357569918734953e-05</internalNodes>
          <leafValues>
            6.5020334720611572e-01 -6.5145230293273926e-01</leafValues></_>
        <_>
          <internalNodes>
            0 -1 27 3.0050454370211810e-05</internalNodes>
          <leafValues>
            -7.3521482944488525e-01 3.7468081712722778e-01</leafValues></_>
        <_>
          <internalNodes>
            0 -1 83 -3.4404836595058441e-02</internalNodes>
          <leafValues>
            4.7499072551727295e-01 -4.4976300001144409e-01</leafValues></_>
        <_>
          <internalNodes>
            0 -1 72 -4.7143721021711826e-03</internalNodes>
          <leafValues>
            7.5561136007308960e-01 -3.0971536040306091e-01</leafValues></_>
        <_>
          <internalNodes>
            0 -1 29 -1.3645344006363302e-04</internalNodes>
          <leafValues>
            -7.3170268535614014e-01 2.9791030287742615e-01</leafValues></_>
        <_>
          <internalNodes>
            0 -1 2 -1.4611463062465191e-02</internalNodes>
          <leafValues>
            3.9485037326812744e-01 -4.8589897155761719e-01</leafValues></_>
        <_>
          <internalNodes>
            0 -1 84 7.0906453765928745e-03</internalNodes>
          <leafValues>
            -8.6327886581420898e-01 2.1439003944396973e-01</leafValues></_></weakClassifiers></_>
    <!-- stage 10 -->
    <_>
      <maxWeakCount>5</maxWeakCount>
      <stageThreshold>-3.3727562427520752e-01</stageThreshold>
      <weakClassifiers>
        <_>
          <internalNodes>
            0 -1 34 -1.9898400933016092e-04</internalNodes>
          <leafValues>
            -9.3281656503677368e-01 6.4602768421173096e-01</leafValues></_>
        <_>
          <internalNodes>
            0 -1 35 -5.7948816567659378e-02</internalNodes>
          <leafValues>
            4.3892526626586914e-01 -6.3856387138366699e-01</leafValues></_>
        <_>
          <internalNodes>
            0 -1 95 7.5039826333522797e-04</internalNodes>
          <leafValues>
            3.0836540460586548e-01 -8.3194762468338013e-01</leafValues></_>
        <_>
          <internalNodes>
            0 -1 65 1.6338106244802475e-02</internalNodes>
          <leafValues>
            -4.0161335468292236e-01 6.5064632892608643e-01</leafValues></_>
        <_>
          <internalNodes>
            0 -1 94 -2.6194189558736980e-04</internalNodes>
          <leafValues>
            -9.3609911203384399e-01 2.4986357986927032e-01</leafValues></_></weakClassifiers></_>
    <!-- stage 11 -->
    <_>
      <maxWeakCount>6</maxWeakCount>
      <stageThreshold>-5.3431314229965210e-01</stageThreshold>
      <weakClassifiers>
        <_>
          <internalNodes>
            0 -1 32 -7.2175986133515835e-03</internalNodes>
          <leafValues>
            6.5961146354675293e-01 -7.3894739151000977e-01</leafValues></_>
        <_>
          <internalNodes>
            0 -1 97 3.2761646434664726e-04</internalNodes>
          <leafValues>
            3.3498185873031616e-01 -8.6018550395965576e-01</leafValues></_>
        <_>
          <internalNodes>
            0 -1 55 3.5978030413389206e-02</internalNodes>
          <leafValues>
            -4.0653908252716064e-01 5.6599807739257813e-01</leafValues></_>
        <_>
          <internalNodes>
            0 -1 9 -7.8983030107337981e-05</internalNodes>
          <leafValues>
            -9.1764575242996216e-01 2.5975975394248962e-01</leafValues></_>
        <_>
          <internalNodes>
            0 -1 0 -1.4637186541222036e-04</internalNodes>
          <leafValues>
            -8.7918174266815186e-01 1.9100739061832428e-01</leafValues></_>
        <_>
          <internalNodes>
            0 -1 18 -1.4042129740118980e-02</internalNodes>
          <leafValues>
            6.0346400737762451e-01 -3.7796720862388611e-01</leafValues></_></weakClassifiers></_>
    <!-- stage 12 -->
    <_>
      <maxWeakCount>7</maxWeakCount>
      <stageThreshold>-4.5336511731147766e-01</stageThreshold>
      <weakClassifiers>
        <_>
          <internalNodes>
            0 -1 42 -2.1077954443171620e-04</internalNodes>
          <leafValues>
            -8.0835378170013428e-01 6.4060276746749878e-01</leafValues></_>
        <_>
          <internalNodes>
            0 -1 92 1.1650065891444683e-02</internalNodes>
          <leafValues>
            -2.5248059630393982e-01 7.0846951007843018e-01</leafValues></_>
        <_>
          <internalNodes>
            0 -1 43 1.0406678484287113e-04</internalNodes>
          <leafValues>
            3.8675680756568909e-01 -6.1184352636337280e-01</leafValues></_>
        <_>
          <internalNodes>
            0 -1 21 -1.3936794857727364e-05</internalNodes>
          <leafValues>
            3.1794786453247070e-01 -6.5886485576629639e-01</leafValues></_>
        <_>
          <internalNodes>
            0 -1 37 3.3740098588168621e-03</internalNodes>
          <leafValues>
            -3.4639090299606323e-01 5.8504980802536011e-01</leafValues></_>
        <_>
          <internalNodes>
            0 -1 96 -3.1267374288290739e-04</internalNodes>
          <leafValues>
            -8.6305648088455200e-01 2.1395966410636902e-01</leafValues></_>
        <_>
          <internalNodes>
            0 -1 54 -1.6539836302399635e-02</internalNodes>
          <leafValues>
            6.8636769056320190e-01 -2.9137259721755981e-01</leafValues></_></weakClassifiers></_>
    <!-- stage 13 -->
    <_>
      <maxWeakCount>7</maxWeakCount>
      <stageThreshold>-5.7834386825561523e-01</stageThreshold>
      <weakClassifiers>
        <_>
          <internalNodes>
            0 -1 78 3.3718722988851368e-05</internalNodes>
          <leafValues>
            -5.5183947086334229e-01 6.7769092321395874e-01</leafValues></_>
        <_>
          <internalNodes>
            0 -1 61 -1.4680450782179832e-02</internalNodes>
          <leafValues>
            7.1746927499771118e-01 -1.9290003180503845e-01</leafValues></_>
        <_>
          <internalNodes>
            0 -1 46 2.8003375045955181e-03</internalNodes>
          <leafValues>
            -3.3818286657333374e-01 5.5274015665054321e-01</leafValues></_>
        <_>
          <internalNodes>
            0 -1 86 -3.1526605598628521e-03</internalNodes>
          <leafValues>
            3.4246414899826050e-01 -5.6347346305847168e-01</leafValues></_>
        <_>
          <internalNodes>
            0 -1 39 1.2561467883642763e-04</internalNodes>
          <leafValues>
            -7.4549919366836548e-01 2.4026417732238770e-01</leafValues></_>
        <_>
          <internalNodes>
            0 -1 4 2.3239696747623384e-04</internalNodes>
          <leafValues>
            -5.7626467943191528e-01 2.5015440583229065e-01</leafValues></_>
        <_>
          <internalNodes>
            0 -1 90 6.9932488258928061e-04</internalNodes>
          <leafValues>
            1.7452210187911987e-01 -9.3447357416152954e-01</leafValues></_></weakClassifiers></_>
    <!-- stage 14 -->
    <_>
      <maxWeakCount>8</maxWeakCount>
      <stageThreshold>-5.2899825572967529e-01</stageThreshold>
      <weakClassifiers>
        <_>
          <internalNodes>
            0 -1 17 -2.4595197828602977e-05</internalNodes>
          <leafValues>
            6.3293308019638062e-01 -6.8075114488601685e-01</leafValues></_>
        <_>
          <internalNodes>
            0 -1 91 8.5387714207172394e-03</internalNodes>
          <leafValues>
            -3.3821037411689758e-01 6.2080866098403931e-01</leafValues></_>
        <_>
          <internalNodes>
            0 -1 60 -2.6261467486619949e-02</internalNodes>
          <leafValues>
            5.7445484399795532e-01 -3.5065001249313354e-01</leafValues></_>
        <_>
          <internalNodes>
            0 -1 15 -1.2431347568053752e-04</internalNodes>
          <leafValues>
            -7.9178845882415771e-01 2.9273626208305359e-01</leafValues></_>
        <_>
          <internalNodes>
            0 -1 68 -5.6058965856209397e-04</internalNodes>
          <leafValues>
            -6.6634875535964966e-01 2.2994585335254669e-01</leafValues></_>
        <_>
          <internalNodes>
            0 -1 52 1.3237053281045519e-05</internalNodes>
          <leafValues>
            -4.1578558087348938e-01 4.2866912484169006e-01</leafValues></_>
        <_>
          <internalNodes>
            0 -1 76 2.1112733520567417e-03</internalNodes>
          <leafValues>
            2.3319303989410400e-01 -9.3811100721359253e-01</leafValues></_>
        <_>
          <internalNodes>
            0 -1 93 7.1829836815595627e-03</internalNodes>
          <leafValues>
            -2.4723556637763977e-01 7.4917608499526978e-01</leafValues></_></weakClassifiers></_>
    <!-- stage 15 -->
    <_>
      <maxWeakCount>10</maxWeakCount>
      <stageThreshold>-5.8605229854583740e-01</stageThreshold>
      <weakClassifiers>
        <_>
          <internalNodes>
            0 -1 58 1.1716200970113277e-04</internalNodes>
          <leafValues>
            6.2408554553985596e-01 -7.9459458589553833e-01</leafValues></_>
        <_>
          <internalNodes>
            0 -1 75 -4.6303258277475834e-03</internalNodes>
          <leafValues>
            5.9485530853271484e-01 -3.5180124640464783e-01</leafValues></_>
        <_>
          <internalNodes>
            0 -1 72 -6.6256448626518250e-03</internalNodes>
          <leafValues>
            6.9512921571731567e-01 -2.8869837522506714e-01</leafValues></_>
        <_>
          <internalNodes>
            0 -1 31 -3.1663905829191208e-03</internalNodes>
          <leafValues>
            4.8699524998664856e-01 -3.6950442194938660e-01</leafValues></_>
        <_>
          <internalNodes>
            0 -1 79 7.7282831072807312e-02</internalNodes>
          <leafValues>
            -3.9014321565628052e-01 4.2730563879013062e-01</leafValues></_>
        <_>
          <internalNodes>
            0 -1 40 1.5037239063531160e-04</internalNodes>
          <leafValues>
            2.4999310076236725e-01 -6.9339090585708618e-01</leafValues></_>
        <_>
          <internalNodes>
            0 -1 51 -2.9757853553746827e-05</internalNodes>
          <leafValues>
            5.5638468265533447e-01 -3.1951102614402771e-01</leafValues></_>
        <_>
          <internalNodes>
            0 -1 28 -4.9283221364021301e-02</internalNodes>
          <leafValues>
            7.0022892951965332e-01 -1.9618256390094757e-01</leafValues></_>
        <_>
          <internalNodes>
            0 -1 70 -2.5181630917359143e-05</internalNodes>
          <leafValues>
            3.9431124925613403e-01 -4.2517444491386414e-01</leafValues></_>
        <_>
          <internalNodes>
            0 -1 8 9.9754448456224054e-05</internalNodes>
          <leafValues>
            1.8733385205268860e-01 -8.9904427528381348e-01</leafValues></_></weakClassifiers></_>
    <!-- stage 16 -->
    <_>
      <maxWeakCount>9</maxWeakCount>
      <stageThreshold>-5.2387624979019165e-01</stageThreshold>
      <weakClassifiers>
        <_>
          <internalNodes>
            0 -1 10 -1.3770844088867307e-04</internalNodes>
          <leafValues>
            -8.7543255090713501e-01 5.9889960289001465e-01</leafValues></_>
        <_>
          <internalNodes>
            0 -1 56 -1.1186691001057625e-02</internalNodes>
          <leafValues>
            6.3537973165512085e-01 -2.1505135297775269e-01</leafValues></_>
        <_>
          <internalNodes>
            0 -1 67 -1.2530728243291378e-02</internalNodes>
          <leafValues>
            2.2433525323867798e-01 -7.2915786504745483e-01</leafValues></_>
        <_>
          <internalNodes>
            0 -1 41 8.6255691712722182e-05</internalNodes>
          <leafValues>
            1.9686087965965271e-01 -7.7090126276016235e-01</leafValues></_>
        <_>
          <internalNodes>
            0 -1 88 6.9051394239068031e-03</internalNodes>
          <leafValues>
            -7.0978629589080811e-01 2.1420460939407349e-01</leafValues></_>
        <_>
          <internalNodes>
            0 -1 45 4.3547461973503232e-04</internalNodes>
          <leafValues>
            -5.7168936729431152e-01 2.5048243999481201e-01</leafValues></_>
        <_>
          <internalNodes>
            0 -1 71 -2.6720645837485790e-03</internalNodes>
          <leafValues>
            -8.8871169090270996e-01 1.5916560590267181e-01</leafValues></_>
        <_>
          <internalNodes>
            0 -1 69 -6.1679747886955738e-05</internalNodes>
          <leafValues>
            2.6012551784515381e-01 -5.0517940521240234e-01</leafValues></_>
        <_>
          <internalNodes>
            0 -1 24 9.4292458379641175e-04</internalNodes>
          <leafValues>
            -2.9164350032806396e-01 5.8291065692901611e-01</leafValues></_></weakClassifiers></_></stages>
  <features>
    <_>
      <rects>
        <_>
          0 0 1 6 -1.</_>
        <_>
          0 2 1 2 3.</_></rects>
      <tilted>0</tilted></_>
    <_>
      <rects>
        <_>
          0 0 1 12 -1.</_>
        <_>
          0 4 1 4 3.</_></rects>
      <tilted>0</tilted></_>
    <_>
      <rects>
        <_>
          0 0 6 13 -1.</_>
        <_>
          2 0 2 13 3.</_></rects>
      <tilted>0</tilted></_>
    <_>
      <rects>
        <_>
          0 0 4 19 -1.</_>
        <_>
          2 0 2 19 2.</_></rects>
      <tilted>0</tilted></_>
    <_>
      <rects>
        <_>
          0 0 15 1 -1.</_>
        <_>
          5 0 5 1 3.</_></rects>
      <tilted>0</tilted></_>
    <_>
      <rects>
        <_>
          0 0 24 24 -1.</_>
        <_>
          0 8 24 8 3.</_></rects>
      <tilted>0</tilted></_>
    <_>
      <rects>
        <_>
          0 1 1 4 -1.</_>
        <_>
          0 3 1 2 2.</_></rects>
      <tilted>0</tilted></_>
    <_>
      <rects>
        <_>
          0 1 2 22 -1.</_>
        <_>
          0 12 2 11 2.</_></rects>
      <tilted>0</tilted></_>
    <_>
      <rects>
        <_>
          0 3 2 1 -1.</_>
        <_>
          1 3 1 1 2.</_></rects>
      <tilted>0</tilted></_>
    <_>
      <rects>
        <_>
          0 3 1 2 -1.</_>
        <_>
          0 4 1 1 2.</_></rects>
      <tilted>0</tilted></_>
    <_>
      <rects>
        <_>
          0 3 3 1 -1.</_>
        <_>
          1 3 1 1 3.</_></rects>
      <tilted>0</tilted></_>
    <_>
      <rects>
        <_>
          0 3 4 17 -1.</_>
        <_>
          2 3 2 17 2.</_></rects>
      <tilted>0</tilted></_>
    <_>
      <rects>
        <_>
          0 3 3 2 -1.</_>
        <_>
          0 4 3 1 2.</_></rects>
      <tilted>0</tilted></_>
    <_>
      <rects>
        <_>
          0 3 6 20 -1.</_>
        <_>
          3 3 3 20 2.</_></rects>
      <tilted>0</tilted></_>
    <_>
      <rects>
        <_>
          0 3 12 1 -1.</_>
        <_>
          6 3 6 1 2.</_></rects>
      <tilted>0</tilted></_>
    <_>
      <rects>
        <_>
          0 4 1 2 -1.</_>
        <_>
          0 5 1 1 2.</_></rects>
      <tilted>0</tilted></_>
    <_>
      <rects>
        <_>
          0 4 6 10 -1.</_>
        <_>
          2 4 2 10 3.</_></rects>
      <tilted>0</tilted></_>
    <_>
      <rects>
        <_>
          0 4 5 2 -1.</_>
        <_>
          0 5 5 1 2.</_></rects>
      <tilted>0</tilted></_>
    <_>
      <rects>
        <_>
          0 5 2 13 -1.</_>
        <_>
          1 5 1 13 2.</_></rects>
      <tilted>0</tilted></_>
    <_>
      <rects>
        <_>
          0 5 4 13 -1.</_>
        <_>
          2 5 2 13 2.</_></rects>
      <tilted>0</tilted></_>
    <_>
      <rects>
        <_>
          0 5 4 2 -1.</_>
        <_>
          0 6 4 1 2.</_></rects>
      <tilted>0</tilted></_>
    <_>
      <rects>
        <_>
          0 8 3 2 -1.</_>
        <_>
          0 9 3 1 2.</_></rects>
      <tilted>0</tilted></_>
    <_>
      <rects>
        <_>
          0 12 6 10 -1.</_>
        <_>
          3 12 3 10 2.</_></rects>
      <tilted>0</tilted></_>
    <_>
      <rects>
        <_>
          0 13 3 2 -1.</_>
        <_>
          0 14 3 1 2.</_></rects>
      <tilted>0</tilted></_>
    <_>
      <rects>
        <_>
          0 19 6 5 -1.</_>
        <_>
          3 19 3 5 2.</_></rects>
      <tilted>0</tilted></_>
    <_>
      <rects>
        <_>
          0 21 3 3 -1.</_>
        <_>
          1 21 1 3 3.</_></rects>
      <tilted>0</tilted></_>
    <_>
      <rects>
        <_>
          0 21 6 3 -1.</_>
        <_>
          2 21 2 3 3.</_></rects>
      <tilted>0</tilted></_>
    <_>
      <rects>
        <_>
          0 23 9 1 -1.</_>
        <_>
          3 23 3 1 3.</_></rects>
      <tilted>0</tilted></_>
    <_>
      <rects>
        <_>
          0 23 24 1 -1.</_>
        <_>
          8 23 8 1 3.</_></rects>
      <tilted>0</tilted></_>
    <_>
      <rects>
        <_>
          1 1 2 2 -1.</_>
        <_>
          2 1 1 2 2.</_></rects>
      <tilted>0</tilted></_>
    <_>
      <rects>
        <_>
          1 1 4 8 -1.</_>
        <_>
          1 5 4 4 2.</_></rects>
      <tilted>0</tilted></_>
    <_>
      <rects>
        <_>
          1 2 8 2 -1.</_>
        <_>
          1 2 4 1 2.</_>
        <_>
          5 3 4 1 2.</_></rects>
      <tilted>0</tilted></_>
    <_>
      <rects>
        <_>
          1 13 4 9 -1.</_>
        <_>
          3 13 2 9 2.</_></rects>
      <tilted>0</tilted></_>
    <_>
      <rects>
        <_>
          1 14 5 10 -1.</_>
        <_>
          1 19 5 5 2.</_></rects>
      <tilted>0</tilted></_>
    <_>
      <rects>
        <_>
          1 22 3 2 -1.</_>
        <_>
          2 22 1 2 3.</_></rects>
      <tilted>0</tilted></_>
    <_>
      <rects>
        <_>
          2 0 22 6 -1.</_>
        <_>
          2 3 22 3 2.</_></rects>
      <tilted>0</tilted></_>
    <_>
      <rects>
        <_>
          2 1 4 4 -1.</_>
        <_>
          4 1 2 4 2.</_></rects>
      <tilted>0</tilted></_>
    <_>
      <rects>
        <_>
          2 3 2 8 -1.</_>
        <_>
          2 3 1 4 2.</_>
        <_>
          3 7 1 4 2.</_></rects>
      <tilted>0</tilted></_>
    <_>
      <rects>
        <_>
          2 19 10 5 -1.</_>
        <_>
          7 19 5 5 2.</_></rects>
      <tilted>0</tilted></_>
    <_>
      <rects>
        <_>
          2 20 6 2 -1.</_>
        <_>
          2 21 6 1 2.</_></rects>
      <tilted>0</tilted></_>
    <_>
      <rects>
        <_>
          2 21 1 3 -1.</_>
        <_>
          2 22 1 1 3.</_></rects>
      <tilted>0</tilted></_>
    <_>
      <rects>
        <_>
          2 22 1 2 -1.</_>
        <_>
          2 23 1 1 2.</_></rects>
      <tilted>0</tilted></_>
    <_>
      <rects>
        <_>
          2 22 3 2 -1.</_>
        <_>
          3 22 1 2 3.</_></rects>
      <tilted>0</tilted></_>
    <_>
      <rects>
        <_>
          2 23 3 1 -1.</_>
        <_>
          3 23 1 1 3.</_></rects>
      <tilted>0</tilted></_>
    <_>
      <rects>
        <_>
          3 0 4 1 -1.</_>
        <_>
          5 0 2 1 2.</_></rects>
      <tilted>0</tilted></_>
    <_>
      <rects>
        <_>
          3 1 2 12 -1.</_>
        <_>
          3 1 1 6 2.</_>
        <_>
          4 7 1 6 2.</_></rects>
      <tilted>0</tilted></_>
    <_>
      <rects>
        <_>
          3 1 6 3 -1.</_>
        <_>
          3 2 6 1 3.</_></rects>
      <tilted>0</tilted></_>
    <_>
      <rects>
        <_>
          3 20 21 3 -1.</_>
        <_>
          10 20 7 3 3.</_></rects>
      <tilted>0</tilted></_>
    <_>
      <rects>
        <_>
          4 0 17 4 -1.</_>
        <_>
          4 2 17 2 2.</_></rects>
      <tilted>0</tilted></_>
    <_>
      <rects>
        <_>
          4 0 20 6 -1.</_>
        <_>
          4 3 20 3 2.</_></rects>
      <tilted>0</tilted></_>
    <_>
      <rects>
        <_>
          4 1 17 6 -1.</_>
        <_>
          4 4 17 3 2.</_></rects>
      <tilted>0</tilted></_>
    <_>
      <rects>
        <_>
          4 20 1 4 -1.</_>
        <_>
          4 22 1 2 2.</_></rects>
      <tilted>0</tilted></_>
    <_>
      <rects>
        <_>
          5 0 3 2 -1.</_>
        <_>
          5 1 3 1 2.</_></rects>
      <tilted>0</tilted></_>
    <_>
      <rects>
        <_>
          5 19 2 5 -1.</_>
        <_>
          6 19 1 5 2.</_></rects>
      <tilted>0</tilted></_>
    <_>
      <rects>
        <_>
          6 2 14 2 -1.</_>
        <_>
          6 3 14 1 2.</_></rects>
      <tilted>0</tilted></_>
    <_>
      <rects>
        <_>
          6 20 14 4 -1.</_>
        <_>
          6 22 14 2 2.</_></rects>
      <tilted>0</tilted></_>
    <_>
      <rects>
        <_>
          6 21 9 3 -1.</_>
        <_>
          6 22 9 1 3.</_></rects>
      <tilted>0</tilted></_>
    <_>
      <rects>
        <_>
          6 22 11 2 -1.</_>
        <_>
          6 23 11 1 2.</_></rects>
      <tilted>0</tilted></_>
    <_>
      <rects>
        <_>
          7 0 1 2 -1.</_>
        <_>
          7 1 1 1 2.</_></rects>
      <tilted>0</tilted></_>
    <_>
      <rects>
        <_>
          7 0 15 6 -1.</_>
        <_>
          7 3 15 3 2.</_></rects>
      <tilted>0</tilted></_>
    <_>
      <rects>
        <_>
          7 18 12 6 -1.</_>
        <_>
          7 20 12 2 3.</_></rects>
      <tilted>0</tilted></_>
    <_>
      <rects>
        <_>
          7 21 10 3 -1.</_>
        <_>
          7 22 10 1 3.</_></rects>
      <tilted>0</tilted></_>
    <_>
      <rects>
        <_>
          8 21 8 3 -1.</_>
        <_>
          8 22 8 1 3.</_></rects>
      <tilted>0</tilted></_>
    <_>
      <rects>
        <_>
          8 22 8 2 -1.</_>
        <_>
          8 23 8 1 2.</_></rects>
      <tilted>0</tilted></_>
    <_>
      <rects>
        <_>
          8 22 9 2 -1.</_>
        <_>
          8 23 9 1 2.</_></rects>
      <tilted>0</tilted></_>
    <_>
      <rects>
        <_>
          8 22 10 2 -1.</_>
        <_>
          8 23 10 1 2.</_></rects>
      <tilted>0</tilted></_>
    <_>
      <rects>
        <_>
          9 0 13 4 -1.</_>
        <_>
          9 2 13 2 2.</_></rects>
      <tilted>0</tilted></_>
    <_>
      <rects>
        <_>
          10 0 14 4 -1.</_>
        <_>
          10 2 14 2 2.</_></rects>
      <tilted>0</tilted></_>
    <_>
      <rects>
        <_>
          12 0 12 1 -1.</_>
        <_>
          16 0 4 1 3.</_></rects>
      <tilted>0</tilted></_>
    <_>
      <rects>
        <_>
          12 6 1 6 -1.</_>
        <_>
          12 9 1 3 2.</_></rects>
      <tilted>0</tilted></_>
    <_>
      <rects>
        <_>
          12 8 1 2 -1.</_>
        <_>
          12 9 1 1 2.</_></rects>
      <tilted>0</tilted></_>
    <_>
      <rects>
        <_>
          15 14 9 3 -1.</_>
        <_>
          15 15 9 1 3.</_></rects>
      <tilted>0</tilted></_>
    <_>
      <rects>
        <_>
          15 22 6 2 -1.</_>
        <_>
          15 22 3 1 2.</_>
        <_>
          18 23 3 1 2.</_></rects>
      <tilted>0</tilted></_>
    <_>
      <rects>
        <_>
          16 15 8 7 -1.</_>
        <_>
          20 15 4 7 2.</_></rects>
      <tilted>0</tilted></_>
    <_>
      <rects>
        <_>
          16 16 8 5 -1.</_>
        <_>
          20 16 4 5 2.</_></rects>
      <tilted>0</tilted></_>
    <_>
      <rects>
        <_>
          17 0 4 10 -1.</_>
        <_>
          17 0 2 5 2.</_>
        <_>
          19 5 2 5 2.</_></rects>
      <tilted>0</tilted></_>
    <_>
      <rects>
        <_>
          17 14 7 3 -1.</_>
        <_>
          17 15 7 1 3.</_></rects>
      <tilted>0</tilted></_>
    <_>
      <rects>
        <_>
          17 16 7 3 -1.</_>
        <_>
          17 17 7 1 3.</_></rects>
      <tilted>0</tilted></_>
    <_>
      <rects>
        <_>
          17 18 7 2 -1.</_>
        <_>
          17 19 7 1 2.</_></rects>
      <tilted>0</tilted></_>
    <_>
      <rects>
        <_>
          18 1 6 22 -1.</_>
        <_>
          21 1 3 22 2.</_></rects>
      <tilted>0</tilted></_>
    <_>
      <rects>
        <_>
          18 5 6 13 -1.</_>
        <_>
          20 5 2 13 3.</_></rects>
      <tilted>0</tilted></_>
    <_>
      <rects>
        <_>
          18 13 6 9 -1.</_>
        <_>
          21 13 3 9 2.</_></rects>
      <tilted>0</tilted></_>
    <_>
      <rects>
        <_>
          18 16 6 2 -1.</_>
        <_>
          18 17 6 1 2.</_></rects>
      <tilted>0</tilted></_>
    <_>
      <rects>
        <_>
          19 0 3 12 -1.</_>
        <_>
          19 6 3 6 2.</_></rects>
      <tilted>0</tilted></_>
    <_>
      <rects>
        <_>
          19 12 4 12 -1.</_>
        <_>
          21 12 2 12 2.</_></rects>
      <tilted>0</tilted></_>
    <_>
      <rects>
        <_>
          19 12 4 10 -1.</_>
        <_>
          19 17 4 5 2.</_></rects>
      <tilted>0</tilted></_>
    <_>
      <rects>
        <_>
          20 6 4 9 -1.</_>
        <_>
          20 9 4 3 3.</_></rects>
      <tilted>0</tilted></_>
    <_>
      <rects>
        <_>
          20 8 4 13 -1.</_>
        <_>
          22 8 2 13 2.</_></rects>
      <tilted>0</tilted></_>
    <_>
      <rects>
        <_>
          20 9 4 10 -1.</_>
        <_>
          20 14 4 5 2.</_></rects>
      <tilted>0</tilted></_>
    <_>
      <rects>
        <_>
          20 14 4 2 -1.</_>
        <_>
          20 15 4 1 2.</_></rects>
      <tilted>0</tilted></_>
    <_>
      <rects>
        <_>
          21 22 3 2 -1.</_>
        <_>
          22 22 1 2 3.</_></rects>
      <tilted>0</tilted></_>
    <_>
      <rects>
        <_>
          22 7 2 10 -1.</_>
        <_>
          23 7 1 10 2.</_></rects>
      <tilted>0</tilted></_>
    <_>
      <rects>
        <_>
          22 8 2 9 -1.</_>
        <_>
          23 8 1 9 2.</_></rects>
      <tilted>0</tilted></_>
    <_>
      <rects>
        <_>
          22 10 2 8 -1.</_>
        <_>
          22 10 1 4 2.</_>
        <_>
          23 14 1 4 2.</_></rects>
      <tilted>0</tilted></_>
    <_>
      <rects>
        <_>
          22 19 2 2 -1.</_>
        <_>
          23 19 1 2 2.</_></rects>
      <tilted>0</tilted></_>
    <_>
      <rects>
        <_>
          22 20 2 3 -1.</_>
        <_>
          23 20 1 3 2.</_></rects>
      <tilted>0</tilted></_>
    <_>
      <rects>
        <_>
          23 15 1 6 -1.</_>
        <_>
          23 17 1 2 3.</_></rects>
      <tilted>0</tilted></_>
    <_>
      <rects>
        <_>
          23 20 1 4 -1.</_>
        <_>
          23 22 1 2 2.</_></rects>
      <tilted>0</tilted></_></features></cascade>
</opencv_storage>
